//Numpy array shape [60]
//Min -0.237487792969
//Max 0.250183105469
//Number of zeros 0

#ifndef B20_H_
#define B20_H_

#ifndef __SYNTHESIS__
bias20_t b20[60];
#else
bias20_t b20[60] = {0.00683593750000, -0.00299072265625, 0.00115966796875, 0.05957031250000, -0.00555419921875, 0.04089355468750, -0.02587890625000, 0.25018310546875, -0.08105468750000, 0.00225830078125, 0.03753662109375, -0.00738525390625, -0.02819824218750, -0.03393554687500, 0.01037597656250, -0.01654052734375, -0.07885742187500, -0.03021240234375, 0.02124023437500, -0.04083251953125, 0.06500244140625, 0.06317138671875, 0.05285644531250, -0.06872558593750, -0.07379150390625, 0.01373291015625, -0.00067138671875, 0.10906982421875, -0.08605957031250, -0.12084960937500, -0.23748779296875, -0.00506591796875, -0.01324462890625, 0.02746582031250, 0.11248779296875, 0.02764892578125, 0.02014160156250, -0.01123046875000, -0.00781250000000, 0.02514648437500, 0.04168701171875, -0.01959228515625, -0.02062988281250, -0.00518798828125, 0.05865478515625, 0.00677490234375, 0.02618408203125, -0.09869384765625, 0.01843261718750, 0.01324462890625, -0.05316162109375, -0.01940917968750, -0.00128173828125, 0.00097656250000, -0.19268798828125, 0.03887939453125, 0.01306152343750, 0.00207519531250, 0.12219238281250, -0.07177734375000};
#endif

#endif
